{"sizes":[24,12,1],"layers":[{"FEATURE 1":{},"FEATURE 2":{},"FEATURE 3":{},"FEATURE 4":{},"FEATURE 5":{},"FEATURE 6":{},"FEATURE 7":{},"FEATURE 8":{},"FEATURE 9":{},"FEATURE 10":{},"FEATURE 11":{},"FEATURE 12":{},"FEATURE 13":{},"FEATURE 14":{},"FEATURE 15":{},"FEATURE 16":{},"FEATURE 17":{},"FEATURE 18":{},"FEATURE 19":{},"FEATURE 20":{},"FEATURE 21":{},"FEATURE 22":{},"FEATURE 23":{},"FEATURE 24":{}},{"0":{"bias":-0.05580995976924896,"weights":{"FEATURE 1":0.16596926748752594,"FEATURE 2":-0.16156503558158875,"FEATURE 3":0.13697263598442078,"FEATURE 4":0.19935131072998047,"FEATURE 5":-0.11284343898296356,"FEATURE 6":-0.03093271143734455,"FEATURE 7":-0.08881697058677673,"FEATURE 8":-0.07305030524730682,"FEATURE 9":0.08281268179416656,"FEATURE 10":0.14219357073307037,"FEATURE 11":-0.1654527187347412,"FEATURE 12":0.15692515671253204,"FEATURE 13":-0.09325911104679108,"FEATURE 14":0.0861687883734703,"FEATURE 15":0.0031194870825856924,"FEATURE 16":0.0014846872072666883,"FEATURE 17":-0.12833097577095032,"FEATURE 18":-0.10570290684700012,"FEATURE 19":0.08533135801553726,"FEATURE 20":-0.00667033065110445,"FEATURE 21":0.0908593237400055,"FEATURE 22":-0.17972490191459656,"FEATURE 23":0.09177830070257187,"FEATURE 24":0.19424733519554138}},"1":{"bias":0.018777836114168167,"weights":{"FEATURE 1":-0.1186681017279625,"FEATURE 2":0.09805028140544891,"FEATURE 3":-0.014425541274249554,"FEATURE 4":0.10624650865793228,"FEATURE 5":0.07806704938411713,"FEATURE 6":-0.05324419215321541,"FEATURE 7":0.03179265931248665,"FEATURE 8":0.15226036310195923,"FEATURE 9":-0.09520988911390305,"FEATURE 10":0.18876324594020844,"FEATURE 11":-0.007872126996517181,"FEATURE 12":-0.036284446716308594,"FEATURE 13":0.13037963211536407,"FEATURE 14":0.14461351931095123,"FEATURE 15":0.03663383424282074,"FEATURE 16":0.10564043372869492,"FEATURE 17":-0.15083511173725128,"FEATURE 18":-0.18389815092086792,"FEATURE 19":0.0573718287050724,"FEATURE 20":-0.1905837506055832,"FEATURE 21":0.042374808341264725,"FEATURE 22":0.05111377313733101,"FEATURE 23":0.040983498096466064,"FEATURE 24":0.14900752902030945}},"2":{"bias":0.08789645880460739,"weights":{"FEATURE 1":0.02081623114645481,"FEATURE 2":0.09107977896928787,"FEATURE 3":-0.06318450719118118,"FEATURE 4":0.08216450363397598,"FEATURE 5":-0.0843004658818245,"FEATURE 6":-0.15069404244422913,"FEATURE 7":-0.05179654806852341,"FEATURE 8":-0.0713525041937828,"FEATURE 9":-0.08493329584598541,"FEATURE 10":-0.02633947879076004,"FEATURE 11":-0.13536013662815094,"FEATURE 12":0.1987372785806656,"FEATURE 13":0.060079608112573624,"FEATURE 14":0.043728142976760864,"FEATURE 15":-0.08442722260951996,"FEATURE 16":0.18665534257888794,"FEATURE 17":0.02398020215332508,"FEATURE 18":-0.003624322824180126,"FEATURE 19":-0.11559117585420609,"FEATURE 20":0.004597289953380823,"FEATURE 21":-0.11140710860490799,"FEATURE 22":0.15372788906097412,"FEATURE 23":0.09855691343545914,"FEATURE 24":0.2242259383201599}},"3":{"bias":-0.1203480213880539,"weights":{"FEATURE 1":0.04335396736860275,"FEATURE 2":-0.027392467483878136,"FEATURE 3":0.17715191841125488,"FEATURE 4":0.08043893426656723,"FEATURE 5":-0.03708016872406006,"FEATURE 6":-0.16724428534507751,"FEATURE 7":-0.16663309931755066,"FEATURE 8":0.024850545451045036,"FEATURE 9":-0.02344362996518612,"FEATURE 10":0.11685354262590408,"FEATURE 11":0.19160598516464233,"FEATURE 12":0.055154576897621155,"FEATURE 13":-0.14012646675109863,"FEATURE 14":-0.1138610988855362,"FEATURE 15":0.09031812846660614,"FEATURE 16":-0.19577135145664215,"FEATURE 17":-0.019312182441353798,"FEATURE 18":0.1372353583574295,"FEATURE 19":0.07457049190998077,"FEATURE 20":-0.06762135028839111,"FEATURE 21":-0.03003021702170372,"FEATURE 22":0.180967316031456,"FEATURE 23":-0.3949308395385742,"FEATURE 24":0.07199408113956451}},"4":{"bias":0.17393691837787628,"weights":{"FEATURE 1":-0.1389041393995285,"FEATURE 2":0.033123258501291275,"FEATURE 3":-0.05768629536032677,"FEATURE 4":-0.15029850602149963,"FEATURE 5":0.09246793389320374,"FEATURE 6":-0.029525259509682655,"FEATURE 7":-0.06435047835111618,"FEATURE 8":-0.031006421893835068,"FEATURE 9":-0.08168797194957733,"FEATURE 10":0.13743029534816742,"FEATURE 11":-0.09158534556627274,"FEATURE 12":0.16728869080543518,"FEATURE 13":-0.11074595153331757,"FEATURE 14":0.0022308523766696453,"FEATURE 15":0.037678297609090805,"FEATURE 16":0.17698782682418823,"FEATURE 17":-0.05882178619503975,"FEATURE 18":0.1801416128873825,"FEATURE 19":-0.06106019392609596,"FEATURE 20":-0.09246346354484558,"FEATURE 21":-0.16111041605472565,"FEATURE 22":-0.03705412894487381,"FEATURE 23":0.24225667119026184,"FEATURE 24":0.06358488649129868}},"5":{"bias":0.06327889114618301,"weights":{"FEATURE 1":0.12352966517210007,"FEATURE 2":0.11480271071195602,"FEATURE 3":0.17900113761425018,"FEATURE 4":0.09091441333293915,"FEATURE 5":0.19658316671848297,"FEATURE 6":-0.021468326449394226,"FEATURE 7":0.08019720017910004,"FEATURE 8":0.13766132295131683,"FEATURE 9":-0.050416458398103714,"FEATURE 10":-0.18710796535015106,"FEATURE 11":-0.19915011525154114,"FEATURE 12":0.11623791605234146,"FEATURE 13":0.06455780565738678,"FEATURE 14":-0.07000979781150818,"FEATURE 15":0.14222188293933868,"FEATURE 16":0.10822173953056335,"FEATURE 17":0.14469484984874725,"FEATURE 18":-0.15252549946308136,"FEATURE 19":0.09008242934942245,"FEATURE 20":0.13646627962589264,"FEATURE 21":-0.0668015405535698,"FEATURE 22":-0.19792969524860382,"FEATURE 23":0.1941058486700058,"FEATURE 24":0.0985146015882492}},"6":{"bias":0.10754495114088058,"weights":{"FEATURE 1":-0.1310727745294571,"FEATURE 2":0.08883514255285263,"FEATURE 3":0.12327106297016144,"FEATURE 4":-0.09697560220956802,"FEATURE 5":-0.19608014822006226,"FEATURE 6":0.07475542277097702,"FEATURE 7":0.05280236154794693,"FEATURE 8":-0.05807435140013695,"FEATURE 9":0.12489394843578339,"FEATURE 10":0.03381683677434921,"FEATURE 11":-0.04118674248456955,"FEATURE 12":-0.14608028531074524,"FEATURE 13":0.14241163432598114,"FEATURE 14":-0.12554441392421722,"FEATURE 15":0.11381291598081589,"FEATURE 16":0.06888067722320557,"FEATURE 17":0.06924914568662643,"FEATURE 18":-0.1641090214252472,"FEATURE 19":0.14357422292232513,"FEATURE 20":-0.08915244042873383,"FEATURE 21":-0.054562319070100784,"FEATURE 22":-0.06001024693250656,"FEATURE 23":-0.3797173500061035,"FEATURE 24":0.06551425904035568}},"7":{"bias":-0.010677827522158623,"weights":{"FEATURE 1":0.0972103402018547,"FEATURE 2":-0.11964744329452515,"FEATURE 3":-0.06803551316261292,"FEATURE 4":-0.0780322477221489,"FEATURE 5":-0.10805005580186844,"FEATURE 6":0.0798809751868248,"FEATURE 7":0.11087719351053238,"FEATURE 8":0.1337277740240097,"FEATURE 9":0.07260946184396744,"FEATURE 10":0.18483880162239075,"FEATURE 11":0.15005181729793549,"FEATURE 12":0.10536808520555496,"FEATURE 13":0.1117725595831871,"FEATURE 14":0.12824338674545288,"FEATURE 15":-0.007646015379577875,"FEATURE 16":-0.09315481781959534,"FEATURE 17":0.0416390635073185,"FEATURE 18":0.04376496747136116,"FEATURE 19":-0.12752188742160797,"FEATURE 20":-0.04189067706465721,"FEATURE 21":0.1164117082953453,"FEATURE 22":-0.1265536993741989,"FEATURE 23":-0.1329336315393448,"FEATURE 24":-0.07385065406560898}},"8":{"bias":-0.07997769862413406,"weights":{"FEATURE 1":-0.02058737725019455,"FEATURE 2":0.01710904948413372,"FEATURE 3":-0.020701702684164047,"FEATURE 4":-0.127526193857193,"FEATURE 5":-0.03435447812080383,"FEATURE 6":0.12752686440944672,"FEATURE 7":-0.11171023547649384,"FEATURE 8":0.03513185679912567,"FEATURE 9":0.19856669008731842,"FEATURE 10":-0.11062154173851013,"FEATURE 11":0.14298546314239502,"FEATURE 12":0.17405672371387482,"FEATURE 13":-0.07481939345598221,"FEATURE 14":-0.14379554986953735,"FEATURE 15":0.009836338460445404,"FEATURE 16":-0.057926829904317856,"FEATURE 17":0.12319938093423843,"FEATURE 18":-0.07326056063175201,"FEATURE 19":0.08491713553667068,"FEATURE 20":-0.08033251762390137,"FEATURE 21":-0.13483569025993347,"FEATURE 22":-0.18783065676689148,"FEATURE 23":0.09878751635551453,"FEATURE 24":0.09489134699106216}},"9":{"bias":-0.019745681434869766,"weights":{"FEATURE 1":0.14619022607803345,"FEATURE 2":0.19152583181858063,"FEATURE 3":-0.10337012261152267,"FEATURE 4":-0.1372549682855606,"FEATURE 5":0.12361645698547363,"FEATURE 6":0.09814427047967911,"FEATURE 7":0.08833838999271393,"FEATURE 8":-0.16482935845851898,"FEATURE 9":-0.04158565774559975,"FEATURE 10":0.10142143815755844,"FEATURE 11":0.00897477101534605,"FEATURE 12":-0.09082993119955063,"FEATURE 13":0.08097676932811737,"FEATURE 14":0.028214402496814728,"FEATURE 15":-0.06190772354602814,"FEATURE 16":-0.10638673603534698,"FEATURE 17":-0.012161944061517715,"FEATURE 18":0.021439917385578156,"FEATURE 19":-0.06923279166221619,"FEATURE 20":0.06051703914999962,"FEATURE 21":-0.14334526658058167,"FEATURE 22":0.13638590276241302,"FEATURE 23":0.18425670266151428,"FEATURE 24":0.039068929851055145}},"10":{"bias":0.017636515200138092,"weights":{"FEATURE 1":-0.18948246538639069,"FEATURE 2":-0.18033157289028168,"FEATURE 3":0.0938311517238617,"FEATURE 4":-0.05422941595315933,"FEATURE 5":-0.18485033512115479,"FEATURE 6":0.07471434772014618,"FEATURE 7":-0.09245791286230087,"FEATURE 8":0.05522560700774193,"FEATURE 9":-0.09196800738573074,"FEATURE 10":0.08054462820291519,"FEATURE 11":-0.02060193568468094,"FEATURE 12":0.010686037130653858,"FEATURE 13":-0.12093008309602737,"FEATURE 14":0.04462015628814697,"FEATURE 15":-0.16219623386859894,"FEATURE 16":-0.004620598629117012,"FEATURE 17":0.08321913331747055,"FEATURE 18":-0.137528657913208,"FEATURE 19":0.18367154896259308,"FEATURE 20":-0.018367579206824303,"FEATURE 21":0.1877562403678894,"FEATURE 22":0.00657203933224082,"FEATURE 23":0.10113338381052017,"FEATURE 24":0.2173791527748108}},"11":{"bias":-0.15640507638454437,"weights":{"FEATURE 1":0.11748137325048447,"FEATURE 2":0.10033868998289108,"FEATURE 3":0.1870000809431076,"FEATURE 4":0.18935944139957428,"FEATURE 5":-0.1077718585729599,"FEATURE 6":-0.1821700483560562,"FEATURE 7":0.03523372486233711,"FEATURE 8":-0.0409969836473465,"FEATURE 9":-0.1437591314315796,"FEATURE 10":-0.02497880719602108,"FEATURE 11":-0.10576246678829193,"FEATURE 12":-0.023153603076934814,"FEATURE 13":-0.07783844321966171,"FEATURE 14":0.18850024044513702,"FEATURE 15":0.031942740082740784,"FEATURE 16":0.0875430554151535,"FEATURE 17":0.13768768310546875,"FEATURE 18":-0.010937793180346489,"FEATURE 19":-0.19421075284481049,"FEATURE 20":0.1022002249956131,"FEATURE 21":0.015197910368442535,"FEATURE 22":-0.18354035913944244,"FEATURE 23":0.16266773641109467,"FEATURE 24":0.0844985842704773}}},{"PAIR_WORKS":{"bias":-0.2561943829059601,"weights":{"0":-0.4476902484893799,"1":-0.47337186336517334,"2":-0.22460825741291046,"3":-1.0096170902252197,"4":-0.30518877506256104,"5":-0.48755910992622375,"6":-0.9840655326843262,"7":0.11397811025381088,"8":-0.35069042444229126,"9":-0.4498075842857361,"10":-0.6374626755714417,"11":-0.5182977318763733}}}],"outputLookup":true,"inputLookup":true,"activation":"sigmoid","trainOpts":{"iterations":20000,"errorThresh":0.005,"log":false,"logPeriod":10,"learningRate":0.3,"momentum":0.1,"callbackPeriod":10,"beta1":0.9,"beta2":0.999,"epsilon":1e-8}}