{"sizes":[24,12,1],"layers":[{"FEATURE 1":{},"FEATURE 2":{},"FEATURE 3":{},"FEATURE 4":{},"FEATURE 5":{},"FEATURE 6":{},"FEATURE 7":{},"FEATURE 8":{},"FEATURE 9":{},"FEATURE 10":{},"FEATURE 11":{},"FEATURE 12":{},"FEATURE 13":{},"FEATURE 14":{},"FEATURE 15":{},"FEATURE 16":{},"FEATURE 17":{},"FEATURE 18":{},"FEATURE 19":{},"FEATURE 20":{},"FEATURE 21":{},"FEATURE 22":{},"FEATURE 23":{},"FEATURE 24":{}},{"0":{"bias":-0.07897979766130447,"weights":{"FEATURE 1":0.10939279943704605,"FEATURE 2":-0.05960381403565407,"FEATURE 3":0.13507144153118134,"FEATURE 4":0.008540489710867405,"FEATURE 5":-0.07511006295681,"FEATURE 6":-0.1912340670824051,"FEATURE 7":0.11212927103042603,"FEATURE 8":0.16381336748600006,"FEATURE 9":-0.011735465377569199,"FEATURE 10":-0.08289562165737152,"FEATURE 11":-0.01680467464029789,"FEATURE 12":-0.003442625282332301,"FEATURE 13":-0.1666642129421234,"FEATURE 14":-0.004236144479364157,"FEATURE 15":0.054734453558921814,"FEATURE 16":-0.1756671518087387,"FEATURE 17":-0.0688246339559555,"FEATURE 18":-0.05218863487243652,"FEATURE 19":-0.05971214175224304,"FEATURE 20":-0.0175782460719347,"FEATURE 21":0.17762647569179535,"FEATURE 22":-0.08785416185855865,"FEATURE 23":-0.10160203278064728,"FEATURE 24":-0.1183488667011261}},"1":{"bias":-0.1685202717781067,"weights":{"FEATURE 1":0.051767416298389435,"FEATURE 2":0.16137303411960602,"FEATURE 3":-0.05815543234348297,"FEATURE 4":-0.0547800250351429,"FEATURE 5":-0.01677917130291462,"FEATURE 6":-0.1767251044511795,"FEATURE 7":-0.16905517876148224,"FEATURE 8":0.1853450983762741,"FEATURE 9":0.014991016127169132,"FEATURE 10":-0.12478026002645493,"FEATURE 11":0.12090960144996643,"FEATURE 12":0.0883214995265007,"FEATURE 13":0.10243567824363708,"FEATURE 14":0.05939431115984917,"FEATURE 15":0.08770513534545898,"FEATURE 16":0.043025270104408264,"FEATURE 17":-0.20809005200862885,"FEATURE 18":-0.07662342488765717,"FEATURE 19":-0.1821882724761963,"FEATURE 20":-0.1512155830860138,"FEATURE 21":-0.028817782178521156,"FEATURE 22":-0.16629824042320251,"FEATURE 23":0.17908012866973877,"FEATURE 24":0.309732049703598}},"2":{"bias":0.0970306545495987,"weights":{"FEATURE 1":-0.11002226918935776,"FEATURE 2":-0.1133221909403801,"FEATURE 3":0.14864428341388702,"FEATURE 4":0.1284732073545456,"FEATURE 5":0.053850457072257996,"FEATURE 6":0.016204409301280975,"FEATURE 7":0.040811143815517426,"FEATURE 8":0.17170578241348267,"FEATURE 9":-0.11873921006917953,"FEATURE 10":0.004947503563016653,"FEATURE 11":0.06730222702026367,"FEATURE 12":0.12209115922451019,"FEATURE 13":0.164081409573555,"FEATURE 14":-0.19821374118328094,"FEATURE 15":-0.009013778530061245,"FEATURE 16":0.13707514107227325,"FEATURE 17":0.048518821597099304,"FEATURE 18":-0.11362987011671066,"FEATURE 19":-0.11620233952999115,"FEATURE 20":-0.03591648489236832,"FEATURE 21":0.13108684122562408,"FEATURE 22":-0.12208095192909241,"FEATURE 23":0.05566953122615814,"FEATURE 24":0.19711731374263763}},"3":{"bias":0.1446409672498703,"weights":{"FEATURE 1":0.0069296397268772125,"FEATURE 2":0.11040543019771576,"FEATURE 3":0.02798215113580227,"FEATURE 4":0.1293741762638092,"FEATURE 5":-0.04237667843699455,"FEATURE 6":-0.08114243298768997,"FEATURE 7":-0.01850208081305027,"FEATURE 8":-0.08760222047567368,"FEATURE 9":-0.14885015785694122,"FEATURE 10":-0.11072288453578949,"FEATURE 11":0.10763194411993027,"FEATURE 12":0.031119193881750107,"FEATURE 13":0.1650029867887497,"FEATURE 14":0.1491071730852127,"FEATURE 15":0.16748864948749542,"FEATURE 16":0.06522402912378311,"FEATURE 17":-0.15863235294818878,"FEATURE 18":-0.02772168628871441,"FEATURE 19":0.1792561113834381,"FEATURE 20":-0.009895289316773415,"FEATURE 21":0.15585121512413025,"FEATURE 22":-0.14760181307792664,"FEATURE 23":0.06734824180603027,"FEATURE 24":0.1750756949186325}},"4":{"bias":-0.19808319211006165,"weights":{"FEATURE 1":-0.09062203019857407,"FEATURE 2":-0.09429742395877838,"FEATURE 3":-0.13010242581367493,"FEATURE 4":0.011455181986093521,"FEATURE 5":0.06980681419372559,"FEATURE 6":0.1474931687116623,"FEATURE 7":-0.18246296048164368,"FEATURE 8":0.10162125527858734,"FEATURE 9":-0.14292192459106445,"FEATURE 10":0.1201687827706337,"FEATURE 11":-0.012572579085826874,"FEATURE 12":0.03224046155810356,"FEATURE 13":0.10967329889535904,"FEATURE 14":-0.11889475584030151,"FEATURE 15":0.12484217435121536,"FEATURE 16":-0.0038856645114719868,"FEATURE 17":0.17896442115306854,"FEATURE 18":-0.13671912252902985,"FEATURE 19":-0.09524307399988174,"FEATURE 20":0.00944717787206173,"FEATURE 21":0.02970653958618641,"FEATURE 22":-0.032475877553224564,"FEATURE 23":0.06482376903295517,"FEATURE 24":0.17107032239437103}},"5":{"bias":-0.13763310015201569,"weights":{"FEATURE 1":-0.09205766767263412,"FEATURE 2":-0.17944669723510742,"FEATURE 3":0.0717240571975708,"FEATURE 4":0.0510433204472065,"FEATURE 5":-0.10286302864551544,"FEATURE 6":-0.07588833570480347,"FEATURE 7":0.18599285185337067,"FEATURE 8":0.17984429001808167,"FEATURE 9":0.165348619222641,"FEATURE 10":0.16225764155387878,"FEATURE 11":0.08293197304010391,"FEATURE 12":0.014072369784116745,"FEATURE 13":0.13505642116069794,"FEATURE 14":-0.15148231387138367,"FEATURE 15":0.05785013735294342,"FEATURE 16":-0.06322610378265381,"FEATURE 17":-0.19392241537570953,"FEATURE 18":0.14143434166908264,"FEATURE 19":-0.07297883927822113,"FEATURE 20":0.008789061568677425,"FEATURE 21":0.09879831224679947,"FEATURE 22":-0.050369858741760254,"FEATURE 23":-0.22010429203510284,"FEATURE 24":-0.1649169772863388}},"6":{"bias":-0.07346364855766296,"weights":{"FEATURE 1":0.008934696204960346,"FEATURE 2":-0.08060823380947113,"FEATURE 3":-0.1303720325231552,"FEATURE 4":0.07983537763357162,"FEATURE 5":0.17336301505565643,"FEATURE 6":-0.03723825886845589,"FEATURE 7":0.16912901401519775,"FEATURE 8":-0.031014198437333107,"FEATURE 9":0.07966682314872742,"FEATURE 10":0.11483090370893478,"FEATURE 11":-0.08421621471643448,"FEATURE 12":-0.06877745687961578,"FEATURE 13":0.009383169002830982,"FEATURE 14":-0.1941690295934677,"FEATURE 15":0.06572819501161575,"FEATURE 16":-0.12124299257993698,"FEATURE 17":-0.03423251584172249,"FEATURE 18":-0.06948217004537582,"FEATURE 19":0.08019208163022995,"FEATURE 20":0.0739826112985611,"FEATURE 21":-0.04968578740954399,"FEATURE 22":-0.016742665320634842,"FEATURE 23":0.07122787833213806,"FEATURE 24":0.09838937968015671}},"7":{"bias":0.17262393236160278,"weights":{"FEATURE 1":-0.1258377581834793,"FEATURE 2":-0.16322505474090576,"FEATURE 3":0.11558395624160767,"FEATURE 4":0.09573061764240265,"FEATURE 5":-0.07335349917411804,"FEATURE 6":0.166253462433815,"FEATURE 7":-0.009724047966301441,"FEATURE 8":-0.05858767405152321,"FEATURE 9":0.11160307377576828,"FEATURE 10":-0.07864072918891907,"FEATURE 11":-0.02391226962208748,"FEATURE 12":-0.1555330753326416,"FEATURE 13":-0.19081690907478333,"FEATURE 14":-0.16205376386642456,"FEATURE 15":0.08158646523952484,"FEATURE 16":0.009291451424360275,"FEATURE 17":-0.19943267107009888,"FEATURE 18":0.8360324501991272,"FEATURE 19":-0.16268429160118103,"FEATURE 20":-0.05515630170702934,"FEATURE 21":0.05740129575133324,"FEATURE 22":-0.040865421295166016,"FEATURE 23":0.1658744066953659,"FEATURE 24":0.4680178761482239}},"8":{"bias":0.03645249456167221,"weights":{"FEATURE 1":0.0629119873046875,"FEATURE 2":-0.31414929032325745,"FEATURE 3":-0.10580138862133026,"FEATURE 4":0.10719151794910431,"FEATURE 5":-0.08032409846782684,"FEATURE 6":0.09200441092252731,"FEATURE 7":0.029779408127069473,"FEATURE 8":0.16061177849769592,"FEATURE 9":0.15392959117889404,"FEATURE 10":0.04456145688891411,"FEATURE 11":0.010805395431816578,"FEATURE 12":-0.035137683153152466,"FEATURE 13":0.15701159834861755,"FEATURE 14":0.09287647902965546,"FEATURE 15":-0.12874643504619598,"FEATURE 16":0.07216630131006241,"FEATURE 17":0.565237283706665,"FEATURE 18":-1.8341244459152222,"FEATURE 19":-0.12461268156766891,"FEATURE 20":0.15468046069145203,"FEATURE 21":0.1636870950460434,"FEATURE 22":-0.09304942935705185,"FEATURE 23":0.15125741064548492,"FEATURE 24":0.13954323530197144}},"9":{"bias":0.004517645575106144,"weights":{"FEATURE 1":-0.07209625840187073,"FEATURE 2":0.10074760764837265,"FEATURE 3":0.18015062808990479,"FEATURE 4":0.07828235626220703,"FEATURE 5":-0.13335144519805908,"FEATURE 6":0.01361223217099905,"FEATURE 7":-0.1489281952381134,"FEATURE 8":0.13746608793735504,"FEATURE 9":0.1643345206975937,"FEATURE 10":-0.0957973375916481,"FEATURE 11":-0.05296923592686653,"FEATURE 12":-0.13056348264217377,"FEATURE 13":-0.19310908019542694,"FEATURE 14":0.07078682631254196,"FEATURE 15":-0.024111073464155197,"FEATURE 16":0.12951414287090302,"FEATURE 17":0.09831473976373672,"FEATURE 18":-0.17266570031642914,"FEATURE 19":0.10100975632667542,"FEATURE 20":-0.06964008510112762,"FEATURE 21":0.1285030096769333,"FEATURE 22":-0.08254207670688629,"FEATURE 23":0.0436476469039917,"FEATURE 24":0.1501017063856125}},"10":{"bias":0.02178192511200905,"weights":{"FEATURE 1":0.007799145299941301,"FEATURE 2":0.14692872762680054,"FEATURE 3":0.17996461689472198,"FEATURE 4":-0.008993948809802532,"FEATURE 5":-0.12450651079416275,"FEATURE 6":-0.031120534986257553,"FEATURE 7":0.1841050535440445,"FEATURE 8":0.09390334784984589,"FEATURE 9":0.14852620661258698,"FEATURE 10":-0.13388855755329132,"FEATURE 11":-0.16184107959270477,"FEATURE 12":-0.1422647386789322,"FEATURE 13":0.19921252131462097,"FEATURE 14":-0.006852271035313606,"FEATURE 15":0.19114582240581512,"FEATURE 16":-0.07510275393724442,"FEATURE 17":-0.12921865284442902,"FEATURE 18":-0.02334793657064438,"FEATURE 19":-0.06556867808103561,"FEATURE 20":-0.1640266329050064,"FEATURE 21":0.07542415708303452,"FEATURE 22":0.15546530485153198,"FEATURE 23":0.06960877776145935,"FEATURE 24":0.18262968957424164}},"11":{"bias":-0.19575461745262146,"weights":{"FEATURE 1":0.07206263393163681,"FEATURE 2":-0.07692443579435349,"FEATURE 3":-0.059540968388319016,"FEATURE 4":-0.15318837761878967,"FEATURE 5":-0.11429355293512344,"FEATURE 6":0.18235859274864197,"FEATURE 7":0.005199923645704985,"FEATURE 8":-0.038236044347286224,"FEATURE 9":-0.00809373427182436,"FEATURE 10":-0.1299874633550644,"FEATURE 11":0.10668528079986572,"FEATURE 12":0.041175395250320435,"FEATURE 13":0.1057451069355011,"FEATURE 14":-0.18283717334270477,"FEATURE 15":-0.15538832545280457,"FEATURE 16":-0.0028159855864942074,"FEATURE 17":0.13716986775398254,"FEATURE 18":0.15294912457466125,"FEATURE 19":0.08156313002109528,"FEATURE 20":-0.0018665315583348274,"FEATURE 21":0.012538460083305836,"FEATURE 22":-0.08342801034450531,"FEATURE 23":-0.014310651458799839,"FEATURE 24":-0.09675566852092743}}},{"PAIR_WORKS":{"bias":-0.313464879989624,"weights":{"0":0.05908620357513428,"1":-0.6826969981193542,"2":-0.24720296263694763,"3":-0.553520917892456,"4":-0.48823779821395874,"5":0.25132352113723755,"6":-0.5267536640167236,"7":1.0566730499267578,"8":-1.4601843357086182,"9":-0.4804661273956299,"10":-0.45509105920791626,"11":0.025592295452952385}}}],"outputLookup":true,"inputLookup":true,"activation":"sigmoid","trainOpts":{"iterations":20000,"errorThresh":0.005,"log":false,"logPeriod":10,"learningRate":0.3,"momentum":0.1,"callbackPeriod":10,"beta1":0.9,"beta2":0.999,"epsilon":1e-8}}